{
  "layers": [
    {
      "In": 0,
      "Out": 0,
      "Weights": [
        [
          -3.412921415910928,
          -3.4095108975302164
        ],
        [
          -5.554463903604737,
          -5.548692730399783
        ],
        [
          -3.622867066255446,
          -3.6086918162046384
        ],
        [
          -0.8834662352157949,
          -0.9602457868479425
        ],
        [
          5.027478394660046,
          5.018910582231374
        ],
        [
          4.51726451652659,
          4.504336011948227
        ]
      ],
      "Biases": [
        1.52120391418345,
        2.407563128901049,
        5.274325977499339,
        0.5598573919083771,
        -7.437129585049964,
        -1.8438480603924086
      ],
      "Z": null,
      "A": null
    },
    {
      "In": 0,
      "Out": 0,
      "Weights": [
        [
          -3.1077745944706616,
          -7.729705675417877,
          4.417399685256729,
          0.3901095198301924,
          -9.89131270975489,
          4.386104448429621
        ],
        [
          -3.7875578766248474,
          -4.29715308639926,
          -6.371181377636288,
          -1.990401805915261,
          6.32684276452013,
          2.0460195211865404
        ],
        [
          -3.3093396543306954,
          -4.857791951204468,
          -1.4904579780468044,
          -0.10475965448983866,
          3.4157074229127375,
          5.4242965225742825
        ]
      ],
      "Biases": [
        -1.0399497144930416,
        -1.3088117477420862,
        2.387287750556821
      ],
      "Z": null,
      "A": null
    }
  ]
}