{
  "layers": [
    {
      "In": 0,
      "Out": 0,
      "Weights": [
        [
          -3.1080519194223255,
          -4.393928283252782
        ],
        [
          9.825041360911625,
          -2.275916497260561
        ],
        [
          -2.0030691971562935,
          -3.502402669471669
        ],
        [
          -2.791448838889478,
          -4.080519351743529
        ],
        [
          -0.27903650326365004,
          -2.130114893551428
        ],
        [
          6.988579173588661,
          -5.502120522330729
        ]
      ],
      "Biases": [
        -0.2988670362059379,
        -4.30693524310204,
        -1.6087088596733852,
        -1.1220699490710684,
        -2.2799964960792876,
        -5.80929863162198
      ],
      "Z": null,
      "A": null
    },
    {
      "In": 0,
      "Out": 0,
      "Weights": [
        [
          2.9868083098474547,
          2.9252096120436892,
          2.9923761027994713,
          2.7924859013685905,
          2.114389513353657,
          -6.541881130571467
        ],
        [
          -1.5029140155964462,
          -1.5202747462775377,
          -1.6849890973696424,
          -1.7276099649321977,
          -1.1378540935814012,
          2.1735138286216187
        ],
        [
          0.07013233586074213,
          0.11815655394977012,
          -0.2907340403215849,
          -0.1281034061518037,
          -0.5299080056445375,
          0.00019446579879110542
        ]
      ],
      "Biases": [
        -3.5713878348368846,
        0.6834519549230506,
        -0.5519097211923881
      ],
      "Z": null,
      "A": null
    }
  ]
}