{
  "layers": [
    {
      "In": 0,
      "Out": 0,
      "Weights": [
        [
          6.13996796151454,
          5.474388191892025
        ],
        [
          -3.9156660716992335,
          -5.362425605860944
        ],
        [
          -1.6745755601130146,
          -3.1691554962046387
        ],
        [
          -2.666581232004449,
          -3.941223009790723
        ],
        [
          -0.044103789204891705,
          -1.9580100613850326
        ],
        [
          5.311244024372533,
          -5.924932410982494
        ]
      ],
      "Biases": [
        -9.305861115319201,
        1.0355724517490512,
        -2.41904390880976,
        -2.260222938645595,
        -2.8276107765804137,
        -6.979838168562305
      ],
      "Z": null,
      "A": null
    },
    {
      "In": 0,
      "Out": 0,
      "Weights": [
        [
          3.355216443581543,
          3.4163764865870547,
          2.3859812591192537,
          2.225727782856852,
          1.7212552949428161,
          -7.036339489312619
        ],
        [
          -1.6097128252985113,
          -1.538164883429216,
          -1.7284357274155537,
          -2.140486083674058,
          -1.1207548599954862,
          0.9903700601503833
        ],
        [
          0.09355068630669211,
          0.08042604212435946,
          -0.5128255345462089,
          -0.38491733754499596,
          -0.9411588768300367,
          0.5500249598022688
        ]
      ],
      "Biases": [
        -3.891163140070093,
        0.7285126203293641,
        -0.5664065126307593
      ],
      "Z": null,
      "A": null
    }
  ]
}